-3.657717257738113403e-02
1.642574518918991089e-01
1.025479938834905624e-02
4.018864408135414124e-02
1.430899184197187424e-02
-1.032551098614931107e-02
6.397871766239404678e-03
1.648193448781967163e-01
1.252125389873981476e-02
-2.498544566333293915e-02
3.216880559921264648e-02
3.086732514202594757e-02
-9.000386111438274384e-03
-1.521842461079359055e-02
8.130642026662826538e-02
-1.676249876618385315e-02
1.124539300799369812e-01
-5.456691235303878784e-02
-3.307560086250305176e-02
6.630966812372207642e-02
9.398713707923889160e-03
1.151851378381252289e-03
3.888846933841705322e-02
-1.465848181396722794e-02
-4.380320012569427490e-02
1.366913877427577972e-02
-2.687460044398903847e-03
4.638845100998878479e-02
-6.110719963908195496e-02
4.309409111738204956e-02
-1.284111142158508301e-01
2.015765756368637085e-02
-2.279724180698394775e-02
-8.189996331930160522e-02
1.257508099079132080e-01
-2.427997533231973648e-04
5.429027602076530457e-02
-3.329747915267944336e-02
1.468324065208435059e-01
4.175690189003944397e-02
2.070246264338493347e-02
1.231148988008499146e-01
-2.491092309355735779e-02
-1.318975985050201416e-01
2.895091846585273743e-02
-6.633272394537925720e-03
-1.680032536387443542e-02
3.946233913302421570e-02
2.762102894484996796e-02
3.525593876838684082e-02
-3.924865648150444031e-02
-7.659828290343284607e-03
6.575867999345064163e-03
1.569061912596225739e-02
-1.060012355446815491e-01
7.911322265863418579e-02
9.515990503132343292e-03
1.034378889016807079e-03
-1.688876003026962280e-02
-6.468036025762557983e-02
1.059402129612863064e-04
-6.374579854309558868e-03
4.159584268927574158e-02
1.067639663815498352e-01
